digraph Tree {
0 [label="X[2] <= 0.5000\ngini = 0.538194444444\nsamples = 24", shape="box"] ;
1 [label="X[1] <= 0.5000\ngini = 0.444444444444\nsamples = 12", shape="box"] ;
0 -> 1 ;
2 [label="X[0] <= 0.7500\ngini = 0.5\nsamples = 6", shape="box"] ;
1 -> 2 ;
3 [label="X[0] <= 0.2500\ngini = 0.5\nsamples = 4", shape="box"] ;
2 -> 3 ;
4 [label="gini = 0.5000\nsamples = 2\nvalue = [ 1.  0.  1.]", shape="box"] ;
3 -> 4 ;
5 [label="gini = 0.5000\nsamples = 2\nvalue = [ 1.  0.  1.]", shape="box"] ;
3 -> 5 ;
6 [label="gini = 0.5000\nsamples = 2\nvalue = [ 1.  0.  1.]", shape="box"] ;
2 -> 6 ;
7 [label="X[0] <= 0.2500\ngini = 0.277777777778\nsamples = 6", shape="box"] ;
1 -> 7 ;
8 [label="gini = 0.5000\nsamples = 2\nvalue = [ 1.  0.  1.]", shape="box"] ;
7 -> 8 ;
9 [label="gini = 0.0000\nsamples = 4\nvalue = [ 4.  0.  0.]", shape="box"] ;
7 -> 9 ;
10 [label="X[0] <= 0.7500\ngini = 0.486111111111\nsamples = 12", shape="box"] ;
0 -> 10 ;
11 [label="X[1] <= 0.5000\ngini = 0.5\nsamples = 8", shape="box"] ;
10 -> 11 ;
12 [label="X[0] <= 0.2500\ngini = 0.5\nsamples = 4", shape="box"] ;
11 -> 12 ;
13 [label="gini = 0.5000\nsamples = 2\nvalue = [ 1.  1.  0.]", shape="box"] ;
12 -> 13 ;
14 [label="gini = 0.5000\nsamples = 2\nvalue = [ 1.  1.  0.]", shape="box"] ;
12 -> 14 ;
15 [label="X[0] <= 0.2500\ngini = 0.5\nsamples = 4", shape="box"] ;
11 -> 15 ;
16 [label="gini = 0.5000\nsamples = 2\nvalue = [ 1.  1.  0.]", shape="box"] ;
15 -> 16 ;
17 [label="gini = 0.5000\nsamples = 2\nvalue = [ 1.  1.  0.]", shape="box"] ;
15 -> 17 ;
18 [label="X[1] <= 0.5000\ngini = 0.375\nsamples = 4", shape="box"] ;
10 -> 18 ;
19 [label="gini = 0.0000\nsamples = 2\nvalue = [ 2.  0.  0.]", shape="box"] ;
18 -> 19 ;
20 [label="gini = 0.5000\nsamples = 2\nvalue = [ 1.  1.  0.]", shape="box"] ;
18 -> 20 ;
}